41 100
Berlin 1.4724287 -3.0660472 1.2919313 3.178568 1.90044 -2.5189524 1.999584 -0.9336575 -2.672562 -2.4814026 -1.6819122 -4.8213744 1.0391914 0.5594078 0.79230624 -1.9676353 -1.6043797 0.14731598 -1.3272952 0.35020277 0.3601632 -0.3288135 0.81085825 -0.15568691 -3.970952 -0.9991984 1.0356499 -0.87879723 -1.6305407 -0.13331155 -0.5631624 0.8695107 0.37236077 0.08698855 -1.866027 1.9221265 0.09188359 -0.87970036 0.19700529 0.28974667 3.5789065 0.67385364 0.09417508 2.000851 1.1188437 -3.0917869 -0.31632495 -1.4203465 3.27164 -0.4145638 -1.7861257 -0.9354539 1.0743507 0.8758309 2.8281496 -1.7598739 -0.3187864 0.029769417 -2.3000247 1.0032835 -2.618711 5.037977 -1.7888905 2.0828536 0.7878193 0.029274292 1.2881647 0.5874792 2.7693577 1.2624205 1.39799 -0.03126408 0.5335201 1.0715518 -0.35350195 0.7236325 -2.1143568 -0.65899295 -0.9009533 0.27017146 1.4241284 -1.6128805 0.47837606 0.92541206 -0.82395524 -0.8642171 1.7095582 0.44955313 0.51228195 -0.9758797 -0.56663215 -0.92973757 2.0861468 3.0681355 -2.5254073 3.0756123 -1.1215981 -1.6008509 1.2285731 0.9783312
Potsdam 2.1806493 -2.1420271 0.39108157 2.6696212 2.1306365 -1.620653 1.11783 -0.48762217 -2.740397 -1.5487118 -1.9752603 -3.6563969 0.5549982 1.9216422 0.92049307 -1.012398 -1.802143 -0.9905557 -2.8306844 -0.4000288 -0.4434338 -0.16391866 1.1310339 0.77226526 -4.2902603 -1.917334 1.2348615 -0.8492573 -2.443106 -0.5470828 -2.1903002 0.9924115 0.8337637 0.008502694 -2.012811 0.39595807 -0.12880456 -0.9881574 0.37015662 -0.63543737 3.6737576 0.06061727 -1.0504802 1.6499404 1.2415177 -2.8529696 -1.1279812 -2.7283988 1.8690581 0.19301386 -0.2834016 -1.5914469 2.6947787 0.79130524 2.5396674 -1.4818038 0.29525942 -1.8913345 -3.6693594 0.50415343 -2.3017197 4.589723 -1.8428047 1.4981691 0.49011025 0.32169512 3.4563036 -0.24081603 2.2460399 1.3189701 0.35500714 -0.636182 0.9643915 -0.5861548 -0.99294496 0.5341161 -1.6744504 -0.56519824 -1.9197882 1.5675427 2.3801298 0.32737896 0.23349418 0.9933065 0.10999042 -0.97541165 0.94789284 0.90614897 0.696443 0.037369933 -0.19528356 -0.5509587 1.7404714 2.655653 -3.0760105 2.6993978 -0.2965713 -1.3025614 1.4548284 -0.6903138
Hamburg 0.4788255 -3.967343 1.1047715 2.6440225 0.60471845 -2.5118766 1.4696972 -0.4973323 -1.6615546 -2.4239113 -0.59188414 -3.502221 1.6147016 1.2382033 1.0770555 -1.4295287 -0.8796352 0.14159687 -0.6082031 0.1284982 0.7834193 -0.38857833 1.6316457 0.259674 -2.8446531 -1.1515193 -0.8148757 -0.31960547 -2.9239964 0.88809747 -0.84069586 0.4803386 0.21044937 0.79038495 -2.6835477 1.6357746 -0.42380887 -1.1495888 1.6994416 -0.34663934 3.9783978 0.8170817 0.15714933 3.3729765 1.4110607 -2.4280055 -0.70826614 -0.99382937 3.2502427 -0.4775877 -1.734122 1.576659 0.21289098 -0.70036286 2.40948 -0.7965453 0.14933442 -0.22131115 -1.3322595 0.40128574 -2.5444393 2.1805856 -2.2447803 1.6169271 0.83752316 0.984588 0.25304157 1.8828899 1.0015125 2.133122 0.52751476 1.2244046 1.0903093 1.7118615 0.5912307 1.1165092 -1.7309636 -1.0335245 -0.4508689 0.49650037 2.1963146 -2.4764233 -0.3523233 0.2862572 -0.16439326 -1.3313167 0.2201799 1.1139678 0.16551498 -0.8288779 -0.888256 -0.7978216 1.1053181 4.6329308 -3.1685114 3.6558213 -1.7478929 -0.80149263 1.0683511 0.9312934
Leipzig 0.76293504 -3.9712656 1.439183 3.3895504 3.3073556 -2.8665438 3.175805 0.43280777 -2.5932677 -2.289003 -2.0658562 -4.2276464 1.778095 2.7869446 1.3783438 -0.88617224 0.19531386 0.53868717 -2.6819577 1.7986319 0.012435815 -0.91381717 0.2762175 1.0501877 -4.040192 -1.4964848 0.7272464 -0.53534126 -2.1375997 0.69183654 0.91598064 1.52499 -0.7642817 0.6103151 -1.60211 1.9885116 -1.1169372 -1.8181924 0.52587205 0.67105275 3.886781 -0.6161123 -0.75117207 1.990302 1.6462587 -2.8843968 -0.87020373 -3.499557 2.7631874 0.10435269 -2.1606202 -1.5144792 2.0407827 2.4870102 1.4161308 -1.1555979 1.1070981 -0.21489511 -3.0637407 1.8440766 -1.941054 3.932652 -1.2583886 2.5001783 0.7809312 -0.37164783 2.2988632 -1.1895068 1.8822465 1.2318531 -1.1575056 -0.9978991 2.9044764 -0.16954686 -0.42839298 1.321524 -2.1555204 -1.7755115 -2.0158286 -1.1899067 2.9957414 -1.456828 0.014243404 1.2383107 -0.6006595 0.507483 2.203124 1.6735793 0.61495835 -2.2341802 -1.4414783 -1.215616 2.436923 3.307275 -2.7870371 0.6347615 -0.5415665 -1.1946487 -0.93109924 -0.75525737
Dresden 1.4830393 -2.1041064 1.5380704 3.0213842 3.5982454 -2.830215 2.7828872 0.7929602 -2.794067 -2.2185907 -1.7122478 -4.1100373 1.8872013 3.4449346 0.68826157 -1.7484419 -0.5578897 -0.7990673 -1.7905833 0.78482324 -0.115760714 0.033562 -0.47313848 1.0816466 -3.4885328 -1.3895888 1.5654894 -2.1535795 -0.91556585 0.14537974 -0.35413167 1.3126079 -0.3496932 0.84601784 -1.4647814 1.7066644 -0.8741384 -2.15035 0.53159475 -0.4259317 4.3474813 -1.491072 -1.4061366 0.5328625 1.4400252 -2.366021 -1.9429433 -2.9716759 1.8089212 0.07723984 -1.7319798 -1.3349689 2.6314526 2.6112654 1.9114788 -1.2875332 1.4027938 -0.89346695 -3.9943836 0.4749197 -1.9437139 5.1928263 -2.0613582 2.4165585 -0.8855015 -0.022410275 2.344985 -0.90404487 1.7291049 1.5397507 -0.5362272 -1.0805588 2.6596174 0.11570591 -0.007056159 1.2742046 -2.4798312 -0.5189481 -1.9706321 0.46611267 1.2759173 -0.4419072 -1.1042553 0.599357 0.16299419 0.5400928 0.19667199 1.884171 1.2272686 -1.2424859 -0.68182045 -1.6905276 2.3942795 2.5897222 -2.447481 1.9752814 -1.7427028 -1.7839674 -0.63109744 -0.1590475
München 1.5581971 -2.694572 2.0958502 2.8834038 0.8114807 -2.685636 1.5643935 -1.4720266 -1.3652112 -2.7260942 -1.690674 -5.457859 -0.79455656 1.8528954 0.8194059 -2.432036 -2.112506 -0.63779604 0.39192328 1.0948844 -1.2697182 0.33826646 -0.8565712 0.9969374 -3.19768 -0.90511006 -1.6199468 -2.2043524 -1.3684238 0.43872362 1.2488184 1.3292778 -0.73115426 1.851259 -3.191608 1.447241 0.0036239403 -1.5151725 0.7690032 -1.1638637 3.512945 -1.1420819 0.25593963 1.5016538 2.0236127 -2.1627603 -1.2536234 -2.2722287 4.049661 0.024156798 -0.9842732 0.6380802 -0.5649606 2.3362699 2.5375628 -1.3744534 -0.28534806 -0.7478447 -1.3420091 1.7010773 -1.1509776 4.2620177 -0.25741062 2.432371 1.3142465 1.8221841 0.70770067 -0.18285336 2.2706513 2.8187113 -0.5358914 -0.33096182 1.6965461 2.1975157 -2.2036457 0.16775945 -2.139775 -0.93282837 -0.24334294 -1.9675298 1.3964478 -2.1778998 0.72122544 1.5923612 -0.35344982 1.553124 0.38507807 -0.6632246 1.3712205 -2.2499042 0.67210513 -2.019939 2.1168294 2.640666 -2.8597682 2.6500952 -1.7529404 -1.9723235 -0.6133123 0.91012543
Düsseldorf 1.5212423 -3.9001079 1.7847265 3.2833288 0.3844156 -2.1836567 0.975444 -0.7471421 -0.49933934 -2.8120863 -0.34014714 -4.145453 1.2113757 0.35558903 1.6788709 -3.4618826 -1.6455655 -0.63275194 0.21100935 -2.0480332 -0.52259064 -1.0434821 0.20867386 0.761265 -3.6849155 -1.3287961 -0.23359175 -1.0305196 -1.7882146 0.9501958 0.38715315 1.2582024 1.2610508 0.661611 -1.6118804 -0.3079202 -0.6327049 -1.4893847 1.9941448 -2.2638383 4.49119 -0.80002576 -0.17894669 2.3914015 2.6378434 -0.3556171 -1.8294861 0.2760385 3.9054818 -0.32086903 -1.8745781 0.40066805 0.3364297 0.19304688 1.7238512 -1.5422405 -0.4791712 -0.7788698 -1.2188956 0.4910014 -1.297487 4.137419 -1.4034173 2.741027 -0.13779528 0.54068 -0.4948545 1.9248078 1.6319622 2.5900772 -1.366469 -0.561143 0.645385 0.38225615 -1.9899735 -0.07527464 -1.0381002 -0.41467375 -1.195821 -1.5798789 2.0088217 -1.7918046 0.6025667 0.072079524 0.49446368 -0.6943376 0.75301003 0.39142188 1.4027998 -0.7229614 -0.8084729 0.125882 1.223775 2.923515 -1.6562092 2.9426985 -0.49647766 -1.6906776 -0.15633585 0.6956885
Bonn 1.7732444 -4.0663724 2.072197 4.2958775 0.18073265 -1.360263 1.3787003 -2.6878824 -0.06871051 -2.274103 -0.003273571 -3.6256404 1.1025541 -0.1968193 1.2135613 -2.3674445 -2.793173 1.2752544 -1.2341235 -0.18676393 -1.331118 -0.91930425 -0.6074049 0.9812637 -4.4210143 -1.5624912 0.5330766 -0.09736781 -0.9911854 -0.14593926 -0.093018785 0.8693645 -0.43050107 -0.5296043 -1.6157752 0.96951985 -0.33930546 -2.0170388 1.0264121 -1.3959492 3.6000252 -0.04480099 -0.052739866 2.3069725 1.4800119 -1.2987778 -0.20072353 -0.61382055 3.5290253 -0.61366093 -0.9096922 -1.1583596 -0.5218217 1.8625399 1.4897516 -2.2108228 -0.4911918 0.24198373 -0.4253451 0.3577809 -1.0172968 2.8009262 -0.49275985 2.0446684 1.57874 0.055591706 -0.65575784 2.097634 1.6710955 1.3335977 -0.8540007 -0.4798934 0.29218873 -0.40195554 -3.4654505 0.5404215 -0.22525021 -2.2620277 -0.33007228 -1.2447248 3.4830062 -1.3223616 2.025733 1.1014658 1.3948184 -1.8369954 1.0099273 0.58137643 0.98908925 0.015818706 -0.67495096 0.35997796 1.423693 2.9020085 -3.3476353 2.236684 -0.32532597 -2.5610816 -0.2984117 -0.1103389
Stuttgart 0.566494 -3.3570497 0.20334707 2.7772198 1.6102041 -2.6712117 1.6524634 -0.57150054 -1.799484 -4.1122923 -1.8026357 -4.316234 0.24488114 1.6587019 0.63662624 -2.6119182 -0.87825954 1.6793637 -0.7267286 1.1920238 -1.1784716 0.58053046 0.021910671 1.4142443 -3.0392811 -0.6221683 -0.22543208 -1.1319795 -2.3557017 0.16795665 1.4316692 1.2761024 -0.4635025 1.5018222 -1.8756893 0.4774182 -0.27453715 -2.166672 1.3811263 -0.664769 4.758611 0.020260576 -0.03183456 1.4845581 1.1988331 -2.0244591 -1.8282847 -0.20666443 2.8957145 -0.35303822 0.17230172 1.4478674 -2.0968559 2.4509158 0.7593037 -0.43448827 -0.9298496 -2.4931943 -2.5525696 1.3863871 -0.77869016 4.6269565 -1.5415394 2.8452494 -0.62160087 1.0701655 1.1247526 0.7991183 1.4733721 2.6291966 -1.0968398 -0.30187252 2.3760073 1.5041481 -2.6256216 0.59593666 -1.273372 -0.6450869 -1.1046237 -1.9701321 3.2812998 -0.36661112 -0.028649885 0.48226166 0.24222066 0.031353075 -0.12167936 0.07345636 0.1060736 -1.813918 -0.1482184 -0.16733412 1.9059938 2.9482884 -2.3108249 0.11083524 -1.6019679 -1.7852423 -0.75115997 -0.21917112
Weimar 0.81683314 -1.7131653 2.436876 2.9921494 1.845896 -0.29539084 2.6221786 -1.1147174 -2.5372846 -2.334248 -2.3316758 -3.4694836 0.3528517 4.3798513 1.2068924 -1.1165236 1.4166012 1.2022911 -2.4026651 1.1520902 0.3682473 0.26225334 -0.13478528 0.9253019 -3.921975 -1.4104351 0.93902147 -1.2302884 0.16889736 -0.2928235 0.5133384 1.7373384 -0.35981962 1.8200374 -1.4862964 1.1422827 -0.46242154 -0.98481894 1.3346587 -0.75390804 2.93283 -2.214732 -0.15668304 1.0968354 0.80897737 -2.3562891 -0.5104329 -2.7905853 1.4891392 0.2564415 -2.0071492 -1.1218625 1.6000528 2.6111226 0.75279814 -3.2125823 1.0141833 -0.94432616 -1.8565971 0.19892144 -1.2871708 4.8923583 -2.1467447 2.49729 -0.6899097 -1.9306469 3.0746555 -1.0212816 1.7709491 0.9943837 -0.46632946 0.35771576 1.1900855 0.41690326 -0.098320544 0.7506466 -2.0931897 -1.4453712 -1.5266876 0.3486694 1.5608495 1.5761656 -0.024269057 1.0271972 0.9672212 -2.3567986 0.4470294 1.6981502 1.1327515 -1.7120334 -0.6982484 -2.2307353 1.3626552 1.8623816 -1.4885651 1.7773243 0.10906778 -3.4978728 -0.04031212 0.92997164
Berlin-Charlottenburg 1.5128573 -1.5925028 0.6586595 2.737699 2.7336202 -3.3243005 2.3284876 -0.4010127 -2.5603123 -1.236744 1.390698 -3.4452677 0.10947353 1.6791242 1.7465216 -0.76290476 -2.2212007 -1.7264746 -1.6744612 -3.056577 -2.49312 -0.07676466 0.8911905 0.6336585 -3.212906 -2.2531605 0.083335854 0.24141365 -0.59732366 -0.98398954 -0.6318233 1.0299761 -0.26325086 0.02371216 -0.9989773 1.6258873 -2.2719183 -0.15970646 0.68009555 0.83962363 4.3310847 1.0046169 -0.97362506 0.4421385 1.035217 -3.0715208 -0.005432196 -1.245041 1.9522611 0.1145647 -1.1913565 -1.1630477 1.0894196 0.71561384 3.754566 -2.4362912 -1.285735 -2.2569542 -3.184358 1.0847605 -0.94772005 4.8925624 -0.5711599 1.2855332 0.7056007 -0.18500423 0.63779205 -0.8603174 1.1504306 2.7624261 -0.2313923 0.72988546 0.86560756 1.2779663 -0.64521337 -0.7648987 -2.4959733 0.72240245 -2.578197 -0.26208177 0.54461426 0.0914198 0.5369705 1.3007053 1.4684235 -0.6077469 0.2473778 -1.4296608 0.31666595 0.999417 -0.5698435 -1.8468993 0.5013717 0.90414715 -1.0855249 1.2087494 -0.5743711 -0.8130733 1.8982494 1.5004699
Rostock -0.052447423 -3.60559 1.6772109 2.86706 1.9994404 -2.4348578 1.6227752 0.8745734 -1.6735575 -1.1641387 -1.2109839 -2.7128108 2.6931345 2.4101596 1.7361269 -0.3911597 0.28977996 -1.826342 -2.747718 0.40901753 1.0916499 -0.70737875 0.17943698 2.0854406 -3.933727 -3.1403418 -0.19658765 0.86128414 -1.990467 0.52544236 -0.68965673 0.2678122 -0.4056638 -0.22843067 -2.2503095 1.3350903 -0.87765706 -1.1228162 0.6979005 0.0049363077 3.679995 0.3805372 -2.3832633 2.8149588 1.0458624 -3.4371023 -1.9802814 -2.762811 2.9123113 0.10116282 -1.2954397 0.08389999 3.2545602 0.28438094 2.5642972 0.47498396 0.16124012 -0.11982153 -2.2074656 -0.5093451 -1.7396588 2.801415 -1.7982526 1.1646467 0.42070258 1.4792393 2.8597028 -0.8791618 0.25874716 1.6536496 -0.70525676 0.16340649 1.8989698 -0.3339532 -0.095169045 1.763818 -1.5596108 -3.0067837 -2.4666238 0.4830095 3.154445 -1.3701065 -1.0491397 -0.06306716 0.46231583 1.5220621 0.7570933 2.8409429 0.10693448 -1.1121051 -0.9337621 -1.1660988 0.8417191 4.024915 -4.042802 2.2258606 -1.2680017 -0.31036356 0.83193445 -1.2228782
Karlsruhe 1.5838838 -2.529165 0.9414354 3.7976122 1.6307899 -2.4193742 2.354482 -1.1965469 -1.6334033 -3.3886178 -1.8650794 -3.5369074 0.33077472 2.2121544 0.26852635 -1.5807775 -1.8900567 1.4273667 -0.48683122 0.96753025 -2.2271042 0.4032111 -0.084693246 1.3407979 -3.3360238 -1.1322114 0.32269242 -1.2017418 -2.0599213 0.114292204 0.4215994 0.79854107 -0.61375797 1.3691764 -1.80406 1.0086576 -0.38792765 -3.078458 1.4099476 -1.2147843 4.136998 -0.6958336 -0.38451162 2.6059084 1.5553446 -1.7188534 -1.5271364 0.79726213 2.5949821 -0.39603162 0.21297146 0.28881106 -1.3120706 2.9030619 1.1491185 -1.0110502 -1.576977 -2.4263206 -1.5825466 1.4203827 -0.6895136 3.9579902 -1.6935902 2.7911727 -0.9775646 1.254181 1.9612513 0.23665561 1.0309166 2.9538777 -0.3533035 -0.79715294 2.3807254 0.6430419 -3.1850677 -0.39104682 -1.2210801 -0.9732431 -0.2532587 -0.6335479 2.77573 -0.042449255 0.36324272 0.86438656 1.6090865 -0.031009398 -0.48638025 0.31716207 0.5224234 -1.1756518 -0.17951767 -0.09912228 2.530875 2.7977724 -2.0488753 0.20153423 -1.1002016 -2.4104908 -0.3136595 0.11849096
Chemnitz -0.071821 -2.078619 0.96774507 2.2073932 2.5093505 -2.2785385 1.9068918 1.747782 -1.5290073 -2.1504567 -1.9481535 -3.25365 1.1573522 2.8399737 0.9552885 -0.50837624 -1.0282772 0.6313287 -2.3201306 -0.9153467 -0.24772462 -1.171374 -0.06752727 0.1618347 -2.9034374 -1.274849 1.0693676 -2.2402093 -0.9883827 0.26384512 0.3823496 1.0184706 -0.18779366 -0.024206221 -0.8312848 0.9084917 -0.9396645 -1.2581304 1.1011178 -0.6893514 4.0972996 -0.5598103 -0.9826887 0.7696983 1.2559915 -2.526354 -1.6847618 -1.8165182 0.4604122 -0.63151234 -1.5176642 -1.2501324 2.1910279 2.5304148 0.9832758 -0.07615802 0.8814643 0.10660285 -2.8825188 1.7149248 -1.8577533 3.8233044 -2.4479718 1.8349282 -1.4475033 0.12769814 2.8790116 -0.8553676 2.7400064 2.0031266 -0.84577686 -0.8724914 2.9834616 0.21649545 0.037663236 0.42180708 -2.3219974 -0.3660082 -2.2743728 -0.43197122 1.7215517 0.7759706 -0.8745138 1.6466581 1.0030715 1.0787317 0.8280506 1.0751222 0.82671565 -1.9481515 -1.3891073 -1.2558906 1.3042547 1.268454 -2.6396513 1.6141497 -1.6413977 0.6219629 -1.8313429 0.0176474
Breslau 0.66671115 -1.4477109 1.0112724 4.2330403 2.26337 -2.566192 1.6472995 -0.94408286 -2.763655 -0.96037793 -2.1646404 -2.903815 1.8353232 1.119287 2.0169706 0.109428614 -1.1536467 -1.7285823 -1.703771 0.71207243 -1.2090474 -1.3298646 -0.7168917 0.7118372 -4.754815 -3.5631673 1.5013397 -0.40079096 0.89500564 -1.0728468 1.462173 0.58924294 -2.7559283 0.21749988 -1.6912439 0.64358234 -2.0710313 -0.9739145 2.2502794 -0.29603416 1.6878437 -1.9989101 -0.12949786 1.4111143 2.1771693 -4.3933425 0.45143798 -1.1235601 3.9444873 -0.72424275 -3.2929354 -0.9749108 2.5522845 0.6606583 2.6612196 -2.2223554 0.89602685 0.9460411 -0.6462083 1.5754563 -1.8068516 4.975164 -2.313616 2.444937 1.5838213 -0.62329596 1.585351 -1.0637891 0.42865443 1.4238337 -1.9904886 -2.2281165 3.041281 1.4201051 -2.0143278 0.6113068 -2.4830418 -0.9999673 0.2892749 0.8584928 2.4978707 -1.0638367 -0.34895396 0.14908566 -1.7034122 1.941026 1.8985492 1.2984878 -0.0162009 -1.5578259 -0.008550553 -2.187807 2.0593472 1.5489694 -0.97414887 1.9475485 0.24402145 -0.8469044 0.0606515 -0.5003547
Wiesbaden 1.4199681 -2.5668006 0.39140195 2.9957764 1.0183543 -1.4078726 0.7635888 -0.41390583 -1.5961545 -2.699855 -1.1129898 -3.5326867 -0.72821206 1.1345066 0.8207142 -1.2185962 -1.9531763 1.2046174 -0.4504608 -0.7006502 -1.534066 -1.0847932 0.77006334 0.87105274 -3.6663823 -1.6704682 -0.36631128 -1.9595237 -1.2353991 0.82079273 0.31586438 1.099766 -0.01171402 1.5779866 -1.5359977 -0.26175913 -0.8228132 -2.7640197 1.208897 -2.4825473 4.4543166 -1.9231594 -0.02933743 2.2114215 0.80981475 -0.3680666 -0.58253014 0.5325622 2.2461965 0.52198386 -0.7502252 0.40309754 -0.6810579 0.44405124 0.58179885 -1.7256589 0.087126754 0.3616069 -1.0917072 0.6464616 -0.64715344 3.034295 -1.0669016 3.0844803 0.23103613 1.0196046 1.3634642 2.1255064 1.3838927 3.629445 -0.6646856 -0.50577396 -0.24480678 0.70948344 -2.4192917 -0.059503227 -1.9207587 0.33785114 0.39449245 0.54787153 1.6864594 0.5424148 0.74976885 1.2223327 0.3308578 -0.9897992 0.005390374 -0.07435875 1.691617 -1.1103004 -1.0191981 0.6588127 1.7831817 2.5723722 -2.276287 2.0083318 -0.15307742 -1.6040094 0.49362868 0.08535702
Hannover -0.69787604 -2.8318765 0.7091279 3.5683258 0.628702 -1.2518525 1.3134501 1.261545 -2.958457 -2.6016433 -2.7561047 -3.0847988 1.0172442 2.5681057 2.4131522 -0.68230635 -1.5334098 -0.58935624 -0.8431034 1.6505982 1.4996935 -0.64220685 1.1116873 1.8012233 -2.033421 -2.3749971 -0.6984424 -0.3277968 -2.6966162 1.0468854 -0.79633635 -0.42681897 -0.7734028 -0.030661095 -3.3196568 0.30523533 -1.2223358 -0.5729508 3.0617197 -2.9068668 5.124666 0.023640223 -0.2518654 3.486461 0.13928273 -2.251292 -1.9075116 -1.5468445 2.4325805 -0.7512338 -1.6511614 0.5302179 0.5033397 -1.2068863 1.7543223 -2.639877 -0.13291581 -1.1188376 -2.846398 1.4638711 -1.5446904 2.002745 -4.279742 1.7247477 -0.3494775 0.27441013 1.2180074 2.1948845 0.6781029 3.4813664 -0.3927816 0.64181846 1.0156127 0.090220876 -2.145199 0.7525145 -1.1697323 0.36291173 -1.0443352 -0.13443908 2.818602 -0.26965895 0.48110953 0.36181536 1.2128823 -1.0970176 1.1327068 1.5118134 0.41952717 -1.3881661 0.001177523 -1.2824947 1.2979654 3.0024998 -4.0008774 1.570004 -1.4554096 -1.9601312 0.14944243 -0.4392077
Mannheim 1.6853468 -3.2835474 0.5989641 2.9801364 1.1810145 -1.3968529 0.9408627 -0.31254974 -1.6122487 -3.2608855 -1.8724927 -3.6118238 0.4104572 1.0427544 0.30374062 -1.9935431 -1.5625105 1.9390556 0.2802701 0.7135401 -1.2754225 0.86246777 -0.5044709 0.742776 -3.7144203 -1.1937207 0.6574015 -1.5149904 -2.0845299 1.5331029 0.5528398 0.8555008 0.35484433 1.0747472 -1.9781708 0.7532778 -1.9935217 -2.8789897 0.15468112 0.01772207 3.759633 -1.2340535 -0.7571003 2.9222007 1.5944724 -1.7833782 -1.9419789 0.5366383 2.66199 -0.18022706 -0.22188514 0.94885194 -0.94251925 1.803573 0.027757896 -1.0817147 -1.053687 -1.6144716 -1.0843568 1.1414813 -1.1633259 3.2404246 -1.8814781 2.945782 0.7031601 1.4079549 0.46572563 0.3180502 0.67708963 1.772458 -1.7707399 -0.23093641 1.2238898 -0.1963919 -3.496091 -0.6290872 -1.9636999 0.653173 0.046926603 0.30976585 2.6482317 -1.1836964 0.18703046 1.8312885 -0.19829342 0.31099528 0.061475094 -0.00835403 0.07782858 -0.63588816 -0.9380958 0.9327447 2.840647 2.300486 -2.8627465 0.6520051 -1.6713516 -0.90254253 -0.9834176 -0.17870733
Kassel 1.5573624 -2.7414863 1.5721854 2.4153137 2.0354354 -0.6525211 1.6377213 -0.16256155 -1.8441646 -3.4728076 -2.572633 -3.7617068 0.23523624 1.2710865 1.2162752 -0.9205896 -1.0587155 0.9277047 -2.8340244 0.3071252 0.47764614 -1.3377731 0.91559184 0.9001432 -1.9663873 -1.7913288 0.10947271 -2.24387 -1.1993378 1.057816 -0.20420754 1.7875043 -0.22031724 1.3919324 -2.4828248 -0.32803512 -1.6879225 -1.686564 2.3967042 -2.0687506 4.3484454 -1.5348932 -0.3441588 2.5623853 0.71311176 -0.13994598 -1.1567454 -0.6108672 2.0728295 0.107921764 -1.7342259 0.020487288 -0.06484621 1.0478864 0.16133566 -2.6260536 -0.20000869 -0.59325665 -1.6615988 0.9442255 -0.9971362 3.3918362 -2.491314 2.04659 0.23428509 0.6876007 2.062595 1.6268865 1.1007411 3.1196811 -1.7570467 -0.7812416 1.0148875 -0.22405078 -2.5530744 -1.7251579 -1.5185262 -0.18235597 -0.8886198 -2.190613 2.6763387 -0.103315204 -0.683338 1.2251213 0.7690897 -1.1588682 1.0098182 0.71360654 1.3288852 -0.2081421 0.34807426 -1.4329259 0.93843347 3.3448193 -3.1033094 1.558151 0.36050677 -1.5369536 -0.007639308 -0.91065574
Köln 1.2908704 -3.3767362 1.4670706 3.8735557 -1.9078406 -1.6077236 1.331111 -0.29959556 -0.7380596 -2.6523669 -0.8157046 -3.6321323 1.5686741 0.67384714 1.4079194 -2.3653526 -0.74354786 -0.61259615 -0.5996697 -0.8911651 -0.37995145 -1.440093 -0.7279234 0.8999324 -3.6521199 -1.612156 -0.84070253 0.30401257 -2.1488779 1.4132677 0.61849993 0.09630572 -0.06868635 0.2913071 -1.2995808 0.52277637 -0.8921397 -1.711682 1.2151649 -2.328338 4.783667 -2.0333195 -1.2947583 1.402545 1.9636314 -1.3122685 -1.2194855 -1.1223034 5.143693 -0.122294925 -1.7692726 0.06915681 0.24433112 0.4655718 0.30582476 -0.9042114 0.40114832 0.64410394 0.41263345 0.3226011 -1.2358178 3.9019098 -1.5221609 2.6278183 0.6591511 1.1480902 -0.73108625 2.197401 1.5581341 2.0085595 -2.032876 -0.522519 0.7546398 -0.00058358227 -3.252497 -0.2191995 0.21831991 -2.148597 -1.085623 -1.0190282 2.8564777 -2.6440372 0.50124097 0.83531433 0.2787406 -1.2303942 1.0826375 1.2501755 1.0798703 -1.5076725 -0.16757096 -0.14564253 1.5245255 2.7275012 -2.7803981 3.1123276 0.13020447 -0.8966806 -0.51066583 0.99631786
Danzig 0.3434559 -0.43505847 0.02619345 3.6308215 0.8936174 -1.6695503 0.5677632 -0.55206066 -2.2976527 0.38730383 -1.474245 -1.8394965 1.6696627 0.4256326 1.9035703 -0.3328135 -0.60560215 -3.0340357 -0.2385389 -0.08148415 0.56776917 -0.8746059 0.5579435 -0.15805362 -2.7945879 -0.8971243 2.3140311 0.9382688 -0.9135117 -0.98293906 -0.54332334 1.5357034 -1.8185693 -0.15237619 -1.6972352 2.3965542 -1.8655112 -0.9251705 1.1926954 -1.45271 1.5386003 -0.23270151 -0.80040723 2.4281464 2.188324 -3.9811633 -0.29961133 -0.3741601 3.5476863 -1.4168851 -2.7655072 0.29077634 3.2625425 -0.96680015 3.5290577 -1.9322486 0.6610368 0.60808754 -0.8311669 -0.11044524 -2.4496436 3.3420672 -1.9751523 0.47625235 0.32710505 -1.0272101 1.3547778 0.13447116 0.13154672 0.28813428 -1.3289757 -0.8861751 1.4825644 1.3329834 -0.5213931 1.5170165 -1.668272 -0.77056 0.780198 2.1736033 2.6864924 -1.2351998 -1.5128056 1.3868883 -2.0170314 -0.06513051 1.1191978 1.8304222 0.7731705 -1.1966338 0.18132062 -0.7299618 1.2886244 2.2685423 -2.0956504 4.2226095 0.083444014 -0.8096383 2.1072474 -0.40903544
Erfurt 0.80782825 -2.3669503 1.1096654 3.270655 0.7745064 -1.4519039 1.9219042 0.8311167 -1.8042164 -2.2313366 -1.7731649 -2.9549952 1.3400627 3.8829648 1.4899487 -0.84751326 0.11752469 -0.113706656 -3.7200713 0.29025638 1.7293645 -1.8050618 -0.6477939 1.1124035 -2.2349725 -1.6650132 0.16187541 -1.4247701 -1.110588 1.782536 -0.20283519 1.8115572 -0.97517 -0.056721106 -1.1387268 0.82461 -1.2046744 -0.44286248 0.8746458 -1.0310925 3.6327696 -2.0560498 -1.8590186 0.91231483 0.23903866 -2.6812892 -0.9170981 -2.7532418 1.3944647 -0.18646018 -1.4106637 -1.1197873 2.4322257 2.0784647 0.43617037 -0.34893444 0.8888223 0.213287 -2.1159236 1.1269192 -1.5725394 4.0761075 -1.6051449 2.4778018 -0.22551571 0.35592985 3.0320697 -0.2609272 1.8677168 1.7028247 -1.7724258 -0.21624248 2.085475 -0.7155931 -2.193457 -0.074285775 -1.4831631 -1.6593729 -1.9956537 -1.0582907 2.9888003 -0.07701468 -0.15102485 1.477318 0.7021823 1.0834221 1.4207053 1.6859922 1.4054524 -2.4089198 -0.7524289 -0.6321149 2.283272 2.055233 -3.406661 2.2726152 -0.6259773 -0.43021062 -0.91989833 -1.3181835
Dessau 0.1655563 -1.3956314 0.90144336 1.5295044 2.1083896 -1.5131856 3.11738 1.23529 -2.8733816 -2.1547744 -2.9989424 -2.7864363 1.2590435 4.0247183 1.2933178 0.08136682 0.2159727 0.023950133 -2.622547 -0.30600816 0.5474296 -1.4347308 1.3657694 0.19545676 -2.600723 -2.0367246 1.8279332 -0.57736945 0.10621047 0.81651056 -0.01658237 1.6952422 0.62712497 -0.06848756 -0.23226205 0.45668364 -2.4231057 -0.58289593 1.6418141 -0.34882122 2.8821259 -1.2120405 -1.3069633 1.4901137 0.801778 -3.2862923 -1.6011274 -1.1307199 1.5939882 0.7571907 -1.7293857 0.70702064 2.5279675 1.5347164 2.2690432 -2.343719 0.96801174 -1.8281279 -2.00432 0.7275825 -0.07954622 5.1753235 -2.5561414 1.8409889 -0.23537984 -0.83301705 1.4757801 -1.6028922 1.7116698 0.86495364 -0.8482321 -0.053865537 1.2644356 0.100376725 0.4115513 0.3793352 -1.7280862 -0.13078277 -2.2270527 0.4125044 1.671268 1.2934842 -0.99142736 0.64955485 0.25455117 -0.5455502 -0.17631105 1.8463999 -0.21313727 -0.9188718 -0.9872116 -0.35021922 1.9959435 1.3820934 -1.8582863 2.0353177 -0.92023367 -0.32049862 -0.35664362 -0.45437723
Bremen -0.056817725 -4.0306034 0.28295764 4.138671 -0.46787897 -2.3579674 0.9685631 0.43590134 -1.3404713 -1.359564 -0.82277346 -2.200871 1.7565475 2.3212283 1.4477017 -1.3962991 0.17130011 -1.3545963 -0.90605104 -0.4249804 1.5688779 -0.99374324 1.4624224 0.7877644 -2.3831103 -2.1295328 -1.6660641 0.2232544 -2.6901212 0.72590595 -0.94406307 0.5009411 0.4212869 0.42321622 -3.0735166 1.0214167 -0.7041424 -0.75787455 1.7760745 -2.6773489 3.53388 0.14633165 -0.5842844 4.046178 0.89186704 -2.8787107 -1.4739583 -1.6824589 3.0122874 -0.60311264 -2.085615 1.0714922 0.50133646 -1.3832761 0.50981027 -0.37709832 -0.27450308 -0.18078382 -1.0240859 -0.46115756 -1.5725161 1.2821352 -3.427919 1.2404199 -0.105012506 1.4428252 1.5813133 2.5607285 0.67731065 2.4371612 0.05218624 1.4794445 0.71612155 0.647879 -0.5704556 0.49217856 -1.0569705 -2.0387053 -2.0052538 0.60034734 2.4288895 -1.2816066 -0.0058241324 0.5419774 0.052929502 -1.0115052 -0.79919124 1.1636823 0.1553158 -1.325528 -1.1693679 -0.18858348 0.76196253 3.9781427 -3.962511 2.4247482 -0.5868158 -1.2412579 1.3530936 0.8364813
Charlottenburg 1.4314452 -2.0112507 0.15726177 3.1659262 2.5931208 -1.7140193 1.7628257 0.9795751 -2.6923652 -1.5155613 0.14690244 -2.9725266 0.21247612 1.8636783 1.1395919 -0.7462718 -2.5799801 -2.4860883 -1.0964936 -2.0945902 -2.031724 0.91948587 -0.94041955 0.87401015 -2.8062131 -2.03308 1.4667398 -1.6644052 -1.4544762 -1.5358213 -2.6417744 1.027692 0.6337462 -0.04204235 -1.0423899 0.30470085 -1.0266916 -0.29810634 1.0189035 0.78062224 3.6740541 -0.25270796 -1.3284174 2.0838847 2.4714863 -1.8952535 -0.62455285 -2.240672 1.1648048 -1.1860713 -1.2601839 -1.2649171 2.6012642 0.8949726 3.5715735 -1.9717021 -2.32372 -1.5937723 -4.7061763 -0.8585368 -1.234185 4.544065 -1.3224397 2.2238266 -0.2457188 -1.1923413 4.0377336 0.2114308 2.693322 1.8623192 -0.64286083 -0.44151437 0.76619583 -0.077199295 -1.0291207 0.093187936 -1.6077003 2.8273823 -1.2799146 1.1930313 0.52900743 0.9238819 -0.10265649 2.496671 -0.25731698 -0.15532756 -0.23765275 -0.63343656 1.2745422 0.64967775 -0.15446915 -1.3178043 1.3338369 2.5326035 -1.3882474 1.3841184 0.6642203 0.061416734 -0.18116742 0.37801945
Magdeburg -0.111748755 -2.24759 0.11168967 4.45879 0.38540328 -1.5804166 1.8756238 0.39969856 -2.2514343 -1.716332 -2.2404668 -2.8578625 2.091869 3.6410477 2.4087481 -0.06400154 0.22710498 -2.0958865 -3.6809313 -0.3861755 1.822062 -1.7394545 0.20696157 1.4365294 -3.2243042 -2.8954718 0.10165746 -0.041837998 -1.4161025 0.92310804 -1.1862137 1.3374597 0.6387167 -0.5271952 -1.8884375 0.45582685 -1.8371872 -1.1202972 1.294254 -2.3937535 4.215464 -1.6285824 -2.4546711 1.766155 1.4688944 -3.2269146 -0.91308457 -2.319828 2.783319 0.075614624 -2.0303493 -1.125721 3.4136958 1.3943502 0.64361435 -0.32597852 0.3090037 0.3711765 -2.137608 0.7852026 -0.7969678 3.779312 -3.2298493 1.9387023 0.02844188 0.7776044 3.4220507 -0.30752668 1.2521039 0.73021215 -1.043963 -0.4769559 1.8335025 -0.78244656 -1.7536565 0.53932756 -1.2387652 -1.1620597 -1.9672645 0.6698811 3.7666326 0.10227215 -1.3601748 0.156355 0.08152423 0.93103224 1.4799974 2.6911323 0.9215576 -1.2821338 -0.31545508 -1.1342897 2.2280722 1.8452109 -3.7362247 2.4601543 -0.49386513 -0.12730736 0.52896893 -1.0381876
Neuruppin 0.7938417 -1.4199102 -0.29886818 1.9067128 1.5843079 -2.3157525 1.0817573 0.43618572 -3.074589 -0.7706987 -2.1261826 -2.4559512 0.74530095 1.0889645 0.36465564 -0.086909376 -1.1237684 -0.29044613 -2.6431572 -1.4860691 0.83298266 -1.3829392 1.8363639 1.5619378 -2.6269846 -2.090307 0.5364342 -0.8800139 -2.366494 1.1199762 -0.95106214 0.89785904 0.26504895 -0.8575919 -0.0642335 0.21264197 -0.54398566 -0.55889726 0.059133522 -0.38284835 3.7620852 -0.8573412 -0.91275114 1.6976646 0.5558987 -2.3734746 -0.51133555 -1.0483861 0.9167707 -0.6801628 -0.7685203 -1.1650672 3.5943456 -0.26206577 2.0313137 -1.3207816 0.39841977 -0.10597091 -1.4641358 -0.14300579 -0.22713313 3.6090295 -0.9419036 1.4355401 -0.14827976 0.9908568 3.3576007 0.093565874 1.8190674 1.61832 -0.10078941 -0.81375796 1.3892626 -0.8166351 0.3403556 -0.4397914 -2.1620357 -0.26649517 -1.1201472 1.6570412 1.0037491 0.9714701 -1.1341999 0.7290102 0.8637159 0.58211744 1.0401824 2.1678882 0.24826486 0.8230898 -1.5858092 -1.0280147 0.41382217 2.5091665 -1.6362106 2.7815018 -0.2850932 1.6758252 0.012874184 -0.40856394
Darmstadt 2.1785948 -3.0084906 0.9053276 1.9703248 2.3588898 -1.8440421 2.237687 0.23525219 -1.7640982 -2.363411 -1.3782189 -3.588947 -0.44801024 2.2511523 1.1648772 -0.8354481 -1.7246238 0.9661168 -1.2154392 0.2956995 -1.5263938 -0.5478666 0.14722441 1.5254953 -3.0831766 -2.008154 0.09313446 -1.650825 -1.4124466 -0.52827173 0.37653273 0.8195437 -0.9399349 1.4341503 -2.0733914 0.6823288 -1.0809618 -2.638556 2.0018249 -1.6989331 3.416184 -1.4131893 -0.17068532 2.353585 0.287574 -0.22151496 -0.8280962 0.03599766 2.532272 0.27132946 -0.82180786 -0.4635075 -1.7591395 1.8958253 0.36986142 -2.3455107 -0.9025554 -0.12911968 -1.0992248 1.0318556 -1.0564029 3.900211 -1.529202 2.8833652 -0.8231274 0.13364689 2.0224166 0.9488081 0.07936948 3.7267098 -1.211716 -0.48009595 1.9288377 0.048756894 -3.1609192 -1.4912387 -1.726199 0.5922906 -0.59022456 -0.48867622 1.8906224 0.44138446 0.7798785 0.49933106 1.690574 0.356895 0.49697328 -0.392594 1.742188 -1.636731 -0.20036502 -0.7651072 1.4105887 3.1679807 -3.1402793 0.09239923 -0.6187876 -1.9657005 0.5367421 0.20516641
Jena 0.36548987 -4.4266157 2.404663 3.417021 2.6990235 -1.8708422 1.5725478 -0.32197574 -1.7296216 -1.411577 -2.2151818 -3.3211722 0.8895865 3.8782103 1.5885187 0.063262716 0.72666234 0.28054917 -3.567375 2.2810423 0.73989064 0.045885984 -0.44482374 2.4907873 -3.1560278 -3.1205337 1.1144172 -0.19041239 -0.7317541 -0.013166833 0.71129936 1.2701628 -0.77981687 0.3232006 -1.9194636 1.1054618 -0.83354324 -1.3860487 0.71039045 1.7656512 3.1134346 -1.1821804 -1.1095362 2.2711847 1.0612683 -2.9040024 0.80669403 -3.5129268 1.9777881 0.89234304 -1.9588604 -2.2599657 1.5907444 1.812148 -0.39461204 -0.7725356 -0.6612171 -0.4639231 -2.5922878 2.9657912 -1.5687541 2.2780232 -1.8262712 0.9486923 0.46188048 -0.40299138 2.9846742 -1.9050412 1.2097722 0.73007745 -0.70580184 0.22523287 2.360982 -1.6112047 -1.1594934 0.28057626 -1.6908371 -1.45007 -1.7296367 -1.7059181 2.4509165 -0.1001473 0.4494566 0.93004006 0.9120924 0.5360778 1.6031588 1.1098434 0.49805385 -1.5912942 -0.7888077 -1.1849483 0.88856214 3.6105285 -3.1564763 0.5891592 -1.6905077 -0.61891943 -1.4020185 -0.64932656
Wien 1.6993456 -0.40865183 0.5797754 3.4815657 1.7573857 -3.1886191 0.3566416 -0.6975592 -3.859243 -3.155961 -1.0740143 -3.58529 0.67661256 0.29185933 1.3465438 -1.1531074 -1.1902778 -0.18237594 1.6637058 1.9740822 -3.0145948 1.723712 -2.8370864 1.1359831 -3.8882313 -0.5695027 0.4884211 -1.9920927 0.1649188 -1.0625001 1.3705724 -1.2098595 -0.64773774 0.61239684 -2.684736 1.8161288 0.30268002 -0.6789807 -0.003797051 0.114639334 2.8872168 -1.6054888 0.86912966 0.5515413 2.6305335 -2.170429 -0.8399388 -3.142541 2.4221284 0.20356885 -1.1745616 -0.2810759 -0.09192879 1.9158556 2.1861286 -1.0327406 1.7885467 0.0032725662 -1.7075858 0.004278481 -3.5037134 4.7563796 0.692135 1.9845288 1.4111327 0.63193256 0.27833036 0.340828 -0.37938273 2.6420143 0.56455994 0.39525995 2.2772179 2.655672 -3.074566 2.421852 -0.39430264 -1.5122169 -0.090939164 0.34043363 0.5385451 -2.0365355 0.68616474 -0.12834004 -1.8848356 0.8590185 -0.40686676 0.35849574 2.596493 -2.8829587 0.66155344 -1.6615717 2.7336633 2.0063124 -2.103265 2.6897328 -2.7216613 -1.3637185 -1.3217815 1.9726645
Heidelberg 0.95605487 -4.077256 1.9794812 3.2241185 0.8397046 -2.37968 1.4302995 -1.3703109 -0.88826466 -2.7481925 -1.3715233 -3.9541984 0.16763079 1.177009 1.1446624 -0.6578606 -1.4168125 1.7505691 -1.6498784 2.1174672 -1.2620153 1.1109424 -0.16721016 1.6466146 -4.753744 -1.9300082 -0.33637124 -0.39937449 -0.6664219 -0.16009551 1.2595451 -0.29816666 -1.8596368 1.4278371 -0.9931706 0.80801076 -1.7195141 -3.0194263 1.277873 0.6937594 2.2662117 -0.8939052 0.6723852 2.1953204 0.94570893 -2.31718 1.4580711 -0.861772 2.9102674 -0.13490906 -0.36932224 0.0063912272 -0.7617989 2.358036 -0.06586548 -2.050144 -1.4483451 -0.9548961 -0.764383 2.299293 -1.2434621 2.8987014 -0.857512 2.894767 1.6656187 0.04730405 0.49203664 0.7141799 -0.23050547 0.91149914 -1.5635058 -0.37247837 2.1658978 -0.21404417 -3.367783 -0.5827673 -1.2216394 -1.808152 0.56231254 -0.8315598 3.2911878 -1.7587705 0.39581776 1.1958071 0.4194178 -0.26361084 0.46990255 0.447435 0.7350322 -0.78251904 -0.7560631 -1.3411317 0.39994267 2.9115274 -2.9446468 0.40293023 -1.592829 -1.4177874 -0.9813924 -0.50021124
Dortmund 0.68851846 -3.7168872 1.030971 3.025947 -0.090976216 -0.6902239 0.88207036 0.59306043 -0.9139919 -2.0079331 -0.25084594 -3.4633718 1.5611578 0.79087114 1.475983 -2.5823216 -0.9479045 -1.2950747 -0.4798476 -1.5018681 0.84693044 -1.6320845 -0.4360999 1.636944 -3.0910478 -1.8877461 -0.23549005 0.22897239 -1.7697595 1.0345008 -0.41668475 1.0463299 0.79172236 -0.35555798 -0.5951941 -0.8528993 -1.9537778 -1.0680767 1.3289938 -1.7366859 4.9866576 -0.29085052 -1.9361976 2.4613261 1.4037215 -0.25600204 -2.61446 0.34836322 4.0891976 -1.2641752 -1.1852937 -0.6659593 0.19036418 0.55924386 1.2418216 -0.6012969 0.09240304 0.6673061 -0.7837457 0.7181358 -1.6238198 2.6891775 -2.073313 0.44234467 -0.76230717 1.6794713 -0.5436234 2.1253817 1.688478 2.1973119 -1.7909006 -0.2591567 0.23928462 1.0051067 -2.517045 -0.050783694 -1.6954061 -0.108008526 -1.8975257 -2.130573 2.188023 -1.1880983 0.886349 0.29565653 1.5573137 0.11981172 2.0169466 0.43243888 0.78264254 -1.7004241 -0.02813352 -0.20374432 1.1624932 3.8423135 -2.3108947 2.1682165 -1.226625 -0.36796907 -0.52189887 -0.31769487
Stettin -0.054340772 -1.2635287 0.03148213 3.5059521 1.4322209 -2.3846755 1.5993967 0.13821866 -3.1656337 -0.42710593 -2.1200912 -1.9455518 2.0161607 0.69416994 1.763165 -0.017210148 -0.45016348 -2.8045368 -1.4200227 0.07205085 0.7343193 -2.3224533 0.20110615 0.35741618 -3.77711 -2.0923815 1.5150994 -0.06526995 -0.9375911 -0.83235 -0.3384462 1.6533086 -2.3059387 1.225535 -2.0261662 0.04333439 -1.9986398 0.26196086 2.6975207 -1.2180759 2.660996 -0.18017015 -0.63837755 1.6475778 1.6913066 -3.2451262 -0.9683815 -0.16509525 3.458229 -1.4877906 -1.8902271 -0.0679146 3.6293502 -1.0235803 3.329278 -1.6619351 1.7220277 -0.010675311 -1.5472616 -1.2673485 -0.26966333 3.3198526 -2.685923 1.3483436 1.2357507 -0.3303389 2.2160459 -0.19286108 0.5660989 1.1028975 -1.0221868 -1.7723488 2.3031785 0.71726346 -1.0630293 0.6245848 -2.3799093 -1.2330412 -0.097322196 2.676756 2.731589 -0.78263694 -1.460205 -0.32363698 -0.93262833 1.4364008 0.25051886 1.9216368 -1.1213309 -0.2498429 -0.27549142 -0.97610384 2.4982333 2.4083498 -1.7849033 3.2259789 0.3372887 0.041479632 2.2055006 -1.0527576
Schwerin 0.83079773 -0.8924859 0.65041333 2.8386643 0.7753815 -1.1645408 1.2349639 1.0168655 -2.3385434 -1.2468014 -2.3517914 -1.2932155 1.1319875 2.1880314 2.097139 -0.10361721 -0.54267454 -1.8080263 -3.0377347 0.23861113 1.5164828 -0.7138678 0.30331564 0.95972043 -4.4699316 -3.6566439 -0.33158284 0.11869797 -0.17549531 0.33105826 -1.8652042 0.576428 0.46529508 0.6997144 -2.7190042 -1.0353235 -1.0139047 -0.6397547 1.6120995 -2.593996 3.2474892 0.10928622 -1.6773603 0.8260087 1.3585242 -3.1278865 -1.9273988 -1.512383 2.1514223 0.1258143 -2.1222727 0.252223 3.1697137 -0.14386712 1.8028492 0.13507245 1.2949926 -0.206384 -2.4632733 -1.4238125 -0.502773 4.181763 -2.8247986 2.2398696 1.000836 0.99052197 4.7929716 0.15693314 1.3981422 0.7635068 0.71248424 0.40644673 1.4972076 -0.052207485 -0.29409662 1.210332 -1.6117026 -1.8968577 -1.9136035 1.5949801 1.9474542 1.409596 -0.95737046 -0.5069543 -0.015407094 -0.08477078 0.6478471 2.7474868 0.13648887 -0.21730044 -0.1652914 -1.5711025 2.0300932 2.9598205 -2.6143978 2.0712955 -1.0636466 -1.2238 1.0401605 -0.4937262
Neubrandenburg 0.5337957 -1.4917641 -0.25133058 1.0414242 1.1787254 -1.8096468 0.4546967 0.6456694 -2.5179164 -0.84661925 -1.603039 -2.179942 2.1898844 1.7489692 0.9218151 0.0265563 -1.0405837 -1.3072684 -3.0200222 -1.15086 1.4068086 -0.6853456 0.9558094 0.36950547 -2.4637325 -2.890407 0.12548387 -0.33946538 -1.742703 0.024779577 -1.0787203 0.3316309 0.7497587 0.46028283 -1.661405 0.71384245 -0.25566822 -0.12007549 0.22011502 -1.1505278 3.4172606 0.572205 -1.4951712 2.8447897 0.8894803 -2.1484234 -1.4682385 -1.7924082 0.17189023 0.37384236 -0.79067415 -0.3109392 3.0089211 0.29409957 1.7833916 1.0597328 -0.32242438 0.028875794 -3.5940561 -1.3246691 -1.8284535 3.2316635 -1.7540749 0.96433896 -1.6236311 0.9805822 4.988431 0.25574964 2.1778357 1.5061827 0.23732321 0.036576133 0.8514585 -0.28041282 0.25926977 1.7919458 -2.9261863 -1.5926665 -2.1906352 1.1202184 2.3838425 0.6946129 -0.74633116 0.28667426 1.2182994 0.85997474 1.0849514 2.6579041 0.052525338 -1.0835707 -1.0752919 -1.7102283 2.3572314 2.9711668 -3.6870399 1.9474386 -1.3372123 0.5343863 0.9682266 -1.6537476
Greifswald 0.1652766 -3.5949454 2.1336477 4.1200643 2.2866993 -2.463635 2.048972 -0.5040621 -1.8794425 -0.06421502 -1.5513515 -2.4307077 2.0569189 2.3177984 1.4994664 0.2575602 -0.025734236 -2.790341 -3.5343769 0.9497378 0.081635915 -0.74197423 0.73926663 1.9250898 -5.1364846 -3.9089255 0.72733 0.7961628 -0.8696721 -1.0500472 0.03268303 0.9725387 -2.1241002 -0.5890719 -1.5035678 1.1408298 -0.99336207 -1.4618317 1.3378011 -0.093261994 2.7690227 0.81153685 -1.6681685 2.5312011 1.3357638 -3.4964762 -1.0661113 -2.8256094 2.4806714 -1.2465186 -2.2604566 -0.4616819 3.2676392 0.6601436 2.271021 -0.7424759 -0.073794246 -1.0668892 -1.3551625 0.29630437 -1.1881994 1.3426702 -1.487533 1.200032 1.3716654 0.2137088 1.6763198 -0.7122881 -0.39352697 0.26784614 -1.1138753 -0.5583302 2.3048165 -0.38951385 -0.98190403 1.3499286 -1.8438789 -3.2866073 -1.5057027 0.9614518 3.8960872 -0.58216655 -0.3801048 -0.07488416 1.4002591 0.5406893 0.7329908 2.8021164 0.42899436 -0.16141252 -0.28739074 -1.881642 -0.59934366 4.892059 -2.5251484 1.4294227 -1.8354392 -1.2819895 0.44077408 -1.6484693
Göttingen -0.122977376 -4.6110187 2.7388806 2.8336575 1.3883183 -1.4654944 2.3721359 -1.7411104 -1.193904 -1.4967352 -2.5326424 -3.3122282 1.1478269 2.834303 1.4258072 0.8935621 -1.0141217 0.78006244 -2.9491022 1.6486821 -0.086301155 -0.944451 1.6648539 1.5473653 -4.002028 -3.101649 -0.26449785 0.53808665 -0.6188652 -0.43683887 0.2877977 1.1222014 -2.112639 0.64383477 -1.9440013 0.88001245 -1.8034527 -2.404448 2.2434692 0.90443194 2.577597 -0.62143743 0.17547432 4.315954 0.5258403 -1.8181914 1.447458 -1.5547183 2.2681353 -0.17019042 -1.6164857 -0.59390116 0.9682918 1.267776 0.9324052 -2.6000106 -1.3031914 -1.1148666 -0.2895839 2.4207237 -1.2336751 0.47808287 -1.6611596 1.1473874 2.081935 -0.7481806 1.5208572 -0.19777593 0.78129643 1.7016252 -1.705271 -0.15058106 1.4956691 -0.63897485 -1.901858 0.41566655 -1.8587918 -1.8882244 -0.25810224 -1.1748425 3.5915368 -0.5357882 0.6541734 1.5102884 1.0257877 -0.5122612 1.3937393 1.3419125 1.0535557 -1.0727713 -0.15176319 -2.0055702 -0.08776956 3.8620412 -3.9716406 0.5049128 -1.4670595 -1.7259696 -0.16387616 -0.4768521
Braunschweig 0.070235215 -3.3072174 0.96919 3.6504455 0.83147234 -0.9355551 0.91183656 1.3919315 -2.2620707 -1.7589343 -2.6636453 -2.5505173 0.87088704 2.9597576 2.6366763 0.45481706 -0.4270969 -1.4037206 -2.2106411 1.5711362 2.0408337 -1.1279006 0.7976403 2.116148 -2.4313078 -2.6761973 -1.1701454 -0.43038902 -1.2154555 0.5626676 -1.4212137 0.97650164 -0.776503 -0.30748147 -2.576778 -0.11043852 -2.5005887 -1.6627984 2.0436442 -2.766603 4.510436 -1.1256311 -1.169368 2.3623164 1.2347726 -1.7047348 -0.8959036 -1.85159 1.7977918 -0.57307225 -1.5166203 0.3095703 0.65960217 -0.057881176 0.0363691 -2.102169 0.18580666 -0.4247576 -1.9678447 1.0175797 -1.3916875 2.0439641 -3.8498597 1.6544343 0.28701076 0.13320003 3.4759657 0.7000201 0.100731105 3.2806695 -2.0567603 0.37438932 0.5724269 0.34349224 -0.8257335 0.43675777 -1.2818834 -0.66438943 -0.9734074 0.539733 2.9298987 -0.24684793 0.3553779 0.4439978 -0.45271614 -1.2657002 0.79255223 1.6031727 0.48184 -1.6000599 0.21821561 -1.0750562 0.8820038 3.057838 -3.1418607 1.5231175 -0.9102674 -1.5785712 0.37466288 -0.48154473
Berliner 2.5021896 -1.93324 0.62058073 4.6480837 4.4127827 -1.523275 1.1078434 2.1851509 -2.9182823 -0.37328464 -0.47262973 -3.8505764 1.3183446 0.91085815 0.8714414 -2.4382932 -2.5759513 0.6540026 -0.012791386 -1.9180672 1.026707 2.5738692 1.0055073 -1.0430847 -4.2999935 -1.5705029 1.4127455 -1.5199605 -3.931993 -0.41933867 0.27617005 0.8046653 0.8166263 -0.4015745 0.30025792 2.2572944 0.99583864 -0.9169119 -1.6128504 -0.5664827 4.188296 -1.2985296 -1.8234825 1.0170832 0.7866375 -1.2588413 -2.0308022 -2.639482 2.272782 1.515848 -1.5250673 -0.7432919 0.91581887 -0.81104904 1.7992172 -0.10896411 -1.8980829 -0.53088236 -3.846311 -2.424622 -1.2538743 5.984656 -3.3172991 0.12078718 1.9760884 -0.7840208 3.0020523 0.43757495 2.258775 1.2697811 1.7896241 0.1640398 0.54885143 0.39416325 -0.6555018 0.8664546 -1.7527426 1.2593247 -6.214188 1.2876759 0.65667766 -1.1322315 1.0171529 1.396287 -0.38880938 0.2110226 0.3926466 1.8455745 0.7311767 -0.5988452 -2.1766667 -0.29076427 -1.64551 1.5849361 -2.7349072 -0.42576337 0.8060806 -0.8787876 -1.2732279 1.2627565
Warschau 1.7711434 1.755447 1.4286655 2.5262399 2.0234625 -2.1741664 2.111254 -1.7445623 -5.018872 -1.576659 -2.6320632 -4.514658 1.8665249 -0.5658911 0.34365138 0.017336166 -1.8486159 -2.4962223 0.24756038 1.4055457 0.8588321 0.35199225 -1.43941 -1.2252843 -2.420198 -0.78274983 3.0546646 0.62422067 -1.0041724 -0.2443084 0.92575693 0.54317707 -0.2752779 -0.67511445 -1.6013588 2.5263104 -1.2210354 0.46443388 -1.0302343 -0.054171536 0.46670872 -0.83005935 -0.20407055 1.7997283 2.118658 -3.9629784 0.35601822 -1.0754963 3.599026 -0.5747844 -2.4134588 -1.797236 2.7411623 0.49563867 2.0865214 -1.8215057 3.1970396 1.0357429 -2.2994704 -0.8102771 -2.5109003 3.7647011 -0.61976844 1.7216551 0.21010154 -1.1537349 0.08629706 1.4690574 -0.20090978 1.6530685 -0.4279085 -0.47829515 0.8595145 1.1116269 -2.388109 0.68994623 -1.6641881 -0.8519223 1.6952112 -0.40065882 1.3539343 -1.4072578 -0.35652128 -1.6083196 -1.6132793 1.169395 0.74953365 1.8232499 2.001881 -0.49464163 0.9751009 0.16553725 2.4203427 1.2875725 -0.5475174 4.190866 1.1683273 0.0885413 1.4156662 -0.67190605
Berlin-Spandau 1.5107871 -0.76364285 0.9072823 1.9016161 1.2115762 -1.5719041 1.2324407 -1.159568 -1.8591305 -1.3239199 -0.868089 -2.4689415 0.018907672 1.4944386 0.8891671 0.8476858 -2.9271998 -1.547096 -1.5533094 -2.4536703 -0.61805004 -0.020517787 1.6072648 0.058831472 -2.2733688 -1.7421594 0.19086894 -1.3981186 -2.022411 0.64980876 -0.4192276 0.39129508 -0.6865307 0.18565977 -0.042095687 1.8122067 -1.607078 -0.2702758 -0.4970061 -0.061173443 4.517128 2.0872662 -1.2874446 0.39391938 1.0150174 -2.996208 -0.09027219 0.7794083 1.3744642 -0.32250872 -0.38681895 -0.65707433 2.0306628 1.0638795 2.244114 -0.6849804 0.123426214 -0.32418516 -1.7535619 0.06498341 -0.028026368 3.7052617 -1.6668594 1.2728359 0.36765975 0.3088829 1.2758119 -0.073761486 1.0732712 -0.4793625 -0.5099331 0.1359661 -0.37006935 0.8534095 0.13102347 -0.9747145 -2.61755 -0.31107 -2.072855 0.6390753 1.0684209 0.34763482 0.62938184 2.257483 1.6696324 -0.41071332 -0.50958544 0.60526407 -0.27884632 0.593429 -0.9150496 -1.8200486 -0.39855394 0.2722582 -0.85434484 2.4347494 -0.7615509 0.56471443 0.9812795 -1.6216714
